digraph Tree {
node [shape=box] ;
0 [label="X[7] <= 0.5\ngini = 0.5\nsamples = 37224\nvalue = [18476, 18748]"] ;
1 [label="X[8] <= 0.5\ngini = 0.497\nsamples = 32094\nvalue = [17218, 14876]"] ;
0 -> 1 [labeldistance=2.5, labelangle=45, headlabel="True"] ;
2 [label="gini = 0.483\nsamples = 21728\nvalue = [12875, 8853]"] ;
1 -> 2 ;
3 [label="gini = 0.487\nsamples = 10366\nvalue = [4343, 6023]"] ;
1 -> 3 ;
4 [label="X[6] <= 14.83\ngini = 0.37\nsamples = 5130\nvalue = [1258, 3872]"] ;
0 -> 4 [labeldistance=2.5, labelangle=-45, headlabel="False"] ;
5 [label="gini = 0.355\nsamples = 4987\nvalue = [1153, 3834]"] ;
4 -> 5 ;
6 [label="gini = 0.39\nsamples = 143\nvalue = [105, 38]"] ;
4 -> 6 ;
}